{
  "num_inputs": 5,
  "num_hidden": 8,
  "num_outputs": 3,
  "weights_input_hidden": [
    [
      0.7708087897038924,
      0.7169084768997755,
      -0.7783820620755562,
      -0.9468357438612074,
      0.40444334166930584,
      -0.7851804011022563,
      0.3857146036749257,
      0.2327995949694639
    ],
    [
      -0.519352885836893,
      -0.18657094751735914,
      0.5140067589541326,
      0.4134615620318387,
      0.18386949013358067,
      -0.26025116074173993,
      -0.35944127041526674,
      -0.5883742003096175
    ],
    [
      -0.021026069660370572,
      -0.11213035997441478,
      0.6172941915490591,
      0.7543029024266277,
      -0.422069977226897,
      0.7970507839740961,
      -0.9490559939751915,
      -0.24808240794447434
    ],
    [
      -0.8417519541447049,
      -0.7860874215334472,
      -0.9791031143343893,
      0.8668925041271818,
      -0.9619139591915444,
      0.8653033264701351,
      0.7480132194321425,
      0.18324013418999718
    ],
    [
      -0.010968384488891925,
      0.2136460697402114,
      -0.2142864448149191,
      0.9763356908085683,
      0.3029963085542682,
      0.5374785153062214,
      -0.22474180752468276,
      -0.1009304680157821
    ]
  ],
  "weights_hidden_output": [
    [
      0.6559628803027691,
      0.879596936469287,
      0.8409625833289869
    ],
    [
      0.16226022090827597,
      -0.5584563132316651,
      -0.7345930355119683
    ],
    [
      -0.5352186915718344,
      -0.14944617766444934,
      0.24444854440950703
    ],
    [
      0.0529555172202707,
      0.3601415726677897,
      0.15519484644928072
    ],
    [
      -0.958021946337658,
      -0.38813082958911993,
      -0.4548319696414025
    ],
    [
      0.6230263171011174,
      0.6210934466224103,
      -0.3846676461188079
    ],
    [
      -0.7078047103146723,
      0.9831948964335191,
      0.6344025837035125
    ],
    [
      -0.12304605198278007,
      0.5770961535265011,
      0.34966046166564846
    ]
  ],
  "bias_hidden": [
    0.24095904242143318,
    0.255963236148236,
    -0.2847236985897317,
    0.9977261487376521,
    -0.0017922384767672384,
    0.47323089029164156,
    -0.6552347995399803,
    -0.31905349771615144
  ],
  "bias_output": [
    -0.9338545059924768,
    -0.7905922134344376,
    -0.6733711448893331
  ],
  "fitness": 0.0,
  "generation": 0
}