{
  "num_inputs": 8,
  "num_hidden": 8,
  "num_outputs": 3,
  "weights_input_hidden": [
    [
      0.9377345511482449,
      -0.9231790582815642,
      -0.45827477431581154,
      -0.8003039481994032,
      -0.1733108188245147,
      0.47630498007448296,
      -0.5356572908801307,
      0.7504878706438576
    ],
    [
      0.904287515697134,
      -0.140305469436804,
      0.11375679067665057,
      -0.8235065021674075,
      -0.9409100146392999,
      0.4507564063615328,
      -0.16293863966575528,
      0.6163933967994777
    ],
    [
      -0.6513029455933466,
      -0.3758067407152883,
      0.7311945817493626,
      0.7793483690777019,
      0.8465433695593434,
      -0.5917850778291693,
      -0.6737093038443203,
      0.16055587660248394
    ],
    [
      0.03032212170967563,
      0.7841649988166375,
      -0.9286405995080984,
      0.09078786386420923,
      0.38408422237643225,
      0.3415307520603048,
      -0.3451436194933388,
      -0.8819270974954752
    ],
    [
      -0.9081156519570157,
      -0.04089903054168298,
      0.3904551113396808,
      -0.467399203086744,
      -0.2913998928314321,
      0.34007403177535744,
      -0.007098962477554593,
      0.926380942113757
    ],
    [
      -0.2775542902539203,
      -0.4189879409116015,
      0.6687450914049182,
      -0.10943591597693514,
      -0.7957883101866294,
      0.5645455982033318,
      -0.5286802430354403,
      -0.30683535906150516
    ],
    [
      0.36998740251341355,
      -0.798988014003627,
      -0.6118565819510904,
      0.7895973895939892,
      0.1355723840855494,
      0.5788596534661505,
      0.37413654215969605,
      -0.3154780811477145
    ],
    [
      -0.9266588707267305,
      0.1665809350418448,
      -0.5890865228182343,
      -0.3279021089279397,
      0.12858145460359016,
      0.23905790971012242,
      -0.9057849028494596,
      0.4308023605504676
    ]
  ],
  "weights_hidden_output": [
    [
      -0.2595679225732923,
      0.557990029006997,
      -0.343158627094726
    ],
    [
      -0.0025638094804358857,
      -0.7872305351429434,
      -0.41290054346702676
    ],
    [
      0.1812067379746516,
      0.6301225867530373,
      0.34856694790328313
    ],
    [
      -0.6005801536636881,
      0.7655055452079593,
      -0.7412999239452682
    ],
    [
      0.03621968450205748,
      0.9152774152070609,
      0.7528132851669469
    ],
    [
      0.6328236582403908,
      0.2793964761757606,
      -0.518356112022397
    ],
    [
      -0.806433726979356,
      -0.780034248014039,
      -0.43022185705373905
    ],
    [
      0.46101555987356946,
      0.8518564115964917,
      -0.9946226452841096
    ]
  ],
  "bias_hidden": [
    -0.1697908393877392,
    -0.8029862180962108,
    -0.43581153089030233,
    0.6256157584713202,
    0.8545963717586407,
    -0.7211498228000148,
    -0.09481952583035169,
    -0.8612938433091284
  ],
  "bias_output": [
    -0.5426685011781547,
    0.2352141270445287,
    0.4238652759107566
  ],
  "fitness": 0.0,
  "generation": 29
}