{
  "num_inputs": 7,
  "num_hidden": 8,
  "num_outputs": 3,
  "weights_input_hidden": [
    [
      0.5265613347962492,
      -0.8547062561348471,
      0.31241011600181223,
      -0.5733309173668859,
      -0.9468968293258331,
      0.26544347356892595,
      -0.8299969653612524,
      -0.5185326731405482
    ],
    [
      0.797149687020343,
      -0.4063852830598291,
      0.031914914117028736,
      0.007315630737488643,
      -0.9777247786001351,
      0.3360673099530118,
      -0.35056189199908894,
      0.7239451094591962
    ],
    [
      -0.22103622164530745,
      -0.9712889694842242,
      0.6450895418081999,
      0.4046467322447975,
      -0.6699039033250542,
      0.5074754947468769,
      -0.842326309210973,
      0.8993708721319553
    ],
    [
      -0.6067612971258591,
      -0.16294960286492044,
      0.5127546961318734,
      0.2553126504476788,
      -0.8937600058890689,
      -0.4243068125751095,
      -0.8613999080303103,
      -0.35773213585397357
    ],
    [
      0.4700225791757253,
      -0.346082385223911,
      0.6101554550968435,
      0.5885881394618688,
      0.11190157103032572,
      0.6218457846074139,
      -0.37757350507441,
      -0.5807023689824553
    ],
    [
      0.6693182647211542,
      0.838112734233907,
      0.5412084164603546,
      0.672556043735705,
      0.29213834042377496,
      -0.19873293364658262,
      0.15227522404620397,
      -0.014952304519075366
    ],
    [
      -0.8785892720074846,
      -0.3788197637723676,
      -0.31677071853308014,
      -0.46090788067956745,
      -0.6073324200871837,
      -0.7895671711716714,
      -0.6215044741170261,
      0.004850506904852336
    ]
  ],
  "weights_hidden_output": [
    [
      -0.5738741267210603,
      0.812685241439296,
      0.4065551109322201
    ],
    [
      0.7763838391226598,
      0.3472438192245826,
      0.3315621821452266
    ],
    [
      -0.2515494031971468,
      0.9760792104219531,
      -0.3525241533750407
    ],
    [
      0.0239979967452697,
      0.050568154630772355,
      0.8856932021689707
    ],
    [
      -0.4046460691623297,
      -0.2415353346607103,
      -0.6288852977511361
    ],
    [
      -0.8549522292862166,
      0.892067560972126,
      0.2921162280499754
    ],
    [
      0.22822238458840083,
      0.5099534410282898,
      -0.9519060439119329
    ],
    [
      -0.055833407023692105,
      -0.2235235383198655,
      0.10001225771685318
    ]
  ],
  "bias_hidden": [
    -0.568749057668281,
    0.6751306676050561,
    -0.16673389812014605,
    0.8256245206638797,
    -0.14403893534662715,
    0.4289896086679168,
    0.7795275229598639,
    0.7823708270301144
  ],
  "bias_output": [
    -0.7043832855103642,
    0.8326302252425393,
    0.41236395425607886
  ],
  "fitness": 1570.0166666666646,
  "generation": 0
}