{
  "num_inputs": 5,
  "num_hidden": 8,
  "num_outputs": 3,
  "weights_input_hidden": [
    [
      -0.7035185328612985,
      -0.2957607717319761,
      -0.9273256730437396,
      0.5291730483867587,
      0.6875770979562008,
      -0.44097815316591626,
      0.8095549953800567,
      0.025956211670270957
    ],
    [
      0.28583572554049685,
      -0.363421160697589,
      -0.5606055959826055,
      -0.9722045375613801,
      0.11972084405630934,
      -0.5340952997908237,
      0.5526882598467047,
      0.0819894285577476
    ],
    [
      0.9330615441738237,
      0.693410469166079,
      -0.7374292525637476,
      -0.19547588939218863,
      0.52675393675305,
      -0.1407509024766227,
      0.4644360649289563,
      -0.9116400103898454
    ],
    [
      -0.12838979295036235,
      0.09773904264314193,
      0.25014595364403003,
      -0.3202414666430582,
      0.744938916162607,
      0.11334683301047677,
      0.817120503082877,
      0.05345566281686298
    ],
    [
      0.7616362437758002,
      -0.9468607845959238,
      0.8325400971115164,
      0.7601080363320316,
      0.8068836552959451,
      -0.7542909304171537,
      -0.18237476794722096,
      0.06662731147622836
    ]
  ],
  "weights_hidden_output": [
    [
      -0.07123556893056038,
      0.6712089058416497,
      0.2849921713766268
    ],
    [
      -0.8481057843808499,
      -0.43288721104706274,
      -0.32585349476612224
    ],
    [
      0.12300760345057804,
      -0.6670353008960503,
      -0.6899891335291426
    ],
    [
      0.7410015341218055,
      -0.8535646580321408,
      0.6264222784134139
    ],
    [
      -0.44669180495024885,
      0.8779718720294751,
      -0.5716104321350426
    ],
    [
      0.4710341124234805,
      0.495541174432353,
      0.24543739253099717
    ],
    [
      0.4507010794049022,
      0.055887296402019615,
      -0.9530414762996018
    ],
    [
      -0.13640179405754949,
      0.8560747017104284,
      -0.17411141584649314
    ]
  ],
  "bias_hidden": [
    0.38512503746994176,
    0.9208335306004438,
    0.2734246450456568,
    -0.983750328902742,
    -0.7997985658581688,
    0.2861348327033606,
    -0.41517199910997316,
    0.4602218474646531
  ],
  "bias_output": [
    0.04330393793567944,
    0.6321214795080345,
    -0.9535606229944069
  ],
  "fitness": 0.0,
  "generation": 1
}